tree
version=v4
num_class=1
num_tree_per_iteration=1
label_index=0
max_feature_idx=41
objective=binary sigmoid:1
feature_names=Column_0 Column_1 Column_2 Column_3 Column_4 Column_5 Column_6 Column_7 Column_8 Column_9 Column_10 Column_11 Column_12 Column_13 Column_14 Column_15 Column_16 Column_17 Column_18 Column_19 Column_20 Column_21 Column_22 Column_23 Column_24 Column_25 Column_26 Column_27 Column_28 Column_29 Column_30 Column_31 Column_32 Column_33 Column_34 Column_35 Column_36 Column_37 Column_38 Column_39 Column_40 Column_41
feature_infos=[-0.67938869729628693:10.965491080364837] [-0.83591497208599719:6.4600826154612783] [-1.4057742561924935:2.4883143211865808] [-1.7474387171114332:1.7245009743936579] [-1.6883272536280034:1.667774026478112] [-1.7527920341488556:1.7391357389505344] [-1.7213382797682342:1.7292407638597593] [-1.7299943307625607:1.7317413774837676] [0:2] [1:4] [3.0341541123218079:4.9976317453838917] [0.1067816549705814:0.99939568609462681] [0:1] [0:6] [1:5] [75.010000000000005:2325.7400000000002] [29.068000000000001:599.26999999999998] none [0:1] [0:1] [0:1] [0:1] [0:1] [0:1] [-0.98203026935261906:3.3853013257684617] [-4.3360033755378815:1.724259140898132] [-1.6882735940588005:1.7033127497616807] [-1.7856928805342165:1.7514500566336655] [-1.7337317791861937:1.7423228040010772] [0:1] [0:4] [0:6] [0:1] [0:1] [0:3] [0:4] [0:23] [0.005000000000002558:556.21000000000004] [0.068039345599103004:4.854265247108307] [0:1] [0:1] none
tree_sizes=3401 3433 3477 3479 3471 3478

Tree=0
num_leaves=31
num_cat=0
split_feature=39 39 18 30 30 30 5 5 3 25 25 16 31 7 15 38 13 1 5 3 6 10 26 6 6 4 24 15 16 4
split_gain=22841.2 2287.31 693.788 152.146 584.462 113.72 95.5805 68.2987 65.8186 61.2824 58.4517 59.5608 59.5332 52.0007 43.2015 41.1194 40.8507 35.5861 35.9811 35.2148 34.7411 34.7158 29.8764 29.6533 28.4254 31.689 28.2221 27.9616 53.6301 42.6367
threshold=0.70000000000000007 1.0000000180025095e-35 1.0000000180025095e-35 2.5000000000000004 1.5000000000000002 3.5000000000000004 1.7088004769004863 -1.6470733659543442 -1.6790963745065561 -0.71156323991644332 -0.75876918070082955 77.329000000000022 5.5000000000000009 -1.1108263193815504 171.25000000000003 1.510723759711653 3.5000000000000004 -0.72536955409285653 -0.37726636454377566 0.016029062135861149 -0.43059204293760511 4.8888232166208967 1.644270592174579 -1.2900599405674622 0.053201369037141726 -0.12600424392343243 -0.4825807050430499 729.28500000000008 89.262500000000017 1.4941825809553821
decision_type=2 2 2 2 2 2 2 2 2 2 2 2 2 2 2 2 2 2 2 2 2 2 10 2 2 2 2 2 2 2
left_child=1 3 7 4 6 -2 8 -3 -1 10 12 -12 -5 16 -6 -15 -11 18 -9 -16 -8 -19 27 -7 -25 -26 -27 28 -4 -29
right_child=5 2 22 9 14 23 20 17 -10 13 11 -13 -14 15 19 -17 -18 21 -20 -21 -22 -23 -24 24 25 26 -28 29 -30 -31
leaf_value=-1.3514037107484593 -1.3126557734402176 -1.3250048338613696 -1.3378913849854557 -1.3839598047365074 -1.2814580782738352 -1.3112360838280006 -1.4067321726090984 -1.3991857403537153 -1.3800429951424873 -1.3811443276160049 -1.3692712527031841 -1.4166687935271636 -1.3955706145538307 -1.3810031475900892 -1.3336653008500914 -1.3857389700031071 -1.3714676726675505 -1.3898421222552919 -1.3442024458588198 -1.3524399524043125 -1.4832455891448559 -1.3614408766154298 -1.3733249969577039 -1.3282207259308563 -1.3132137364741543 -1.3195625088921523 -1.3362253934816779 -1.3391842153213012 -1.3494106786322799 -1.3048250378917514
leaf_weight=206.67898988723755 15443.496574997902 50.760602355003357 1669.9480553865433 8205.3377275466919 30.304837226867676 621.70373570919037 30.759409785270691 43.638965606689453 10786.855286717415 2428.3266069889069 86.671834468841553 290.168816447258 1292.349783539772 12946.681035876274 530.18312728404999 7286.6465870141983 2049.3646174669266 1125.8247029781342 101.36968052387238 504.12096726894379 28.335022807121277 121.37087309360504 85.762689352035522 1737.6793665885925 1090.9741401672363 771.25810742378235 409.56987512111664 1275.2275505065918 2707.4341578483582 100.30901122093201
leaf_count=752 46637 163 5717 34140 76 1863 139 192 44205 9994 340 1359 5617 53255 1779 30525 8117 4790 357 1843 163 461 342 5680 3304 2414 1391 4392 9768 290
internal_value=-1.36027 -1.3772 -1.35113 -1.38127 -1.37643 -1.31473 -1.37984 -1.3822 -1.3795 -1.38296 -1.38631 -1.40573 -1.38554 -1.38162 -1.34103 -1.38271 -1.37671 -1.3843 -1.36065 -1.3428 -1.44346 -1.38707 -1.34346 -1.32165 -1.32327 -1.3195 -1.32533 -1.34301 -1.34501 -1.33666
internal_weight=74059.1 53984.4 7281.65 46702.8 12117.2 20074.7 11052.6 1442.96 10993.5 34585.5 9874.53 376.841 9497.69 24711 1064.61 20233.3 4477.69 1392.2 145.009 1034.3 59.0944 1247.2 5838.68 4631.19 4009.48 2271.8 1180.83 5752.92 4377.38 1375.54
internal_count=280065 218776 26472 192304 48957 61289 45259 5963 44957 143347 41456 1699 39757 101891 3698 83780 18111 5800 549 3622 302 5251 20509 14652 12789 7109 3805 20167 15485 4682
is_linear=0
shrinkage=1


Tree=1
num_leaves=31
num_cat=0
split_feature=39 39 14 30 30 30 5 5 28 3 11 7 24 2 27 0 14 28 24 6 1 24 27 38 2 31 3 3 28 0
split_gain=16283.2 1688.48 497.219 114.398 428.249 75.9051 74.9425 58.1826 49.6109 48.5796 35.4642 32.0147 39.8631 45.3156 32.6755 52.2683 36.2107 31.7848 49.9539 29.5973 27.2197 26.4646 25.7654 25.382 25.2817 29.5459 24.1609 22.5206 22.2778 22.0211
threshold=0.70000000000000007 1.0000000180025095e-35 1.5000000000000002 2.5000000000000004 1.5000000000000002 3.5000000000000004 1.7088004769004863 -1.5982866309923309 1.3870703644107563 -1.6790963745065561 0.79754173897163949 -1.1108263193815504 -0.63911243589237043 2.2437489321146713 0.82640566124206505 -0.49931323681699119 4.5000000000000009 -0.77488951678699081 -0.2340412081194955 -0.43059204293760511 0.45378157116730916 0.25451854812814728 1.6982865856341485 0.78018591544674831 -0.87069119674660611 4.5000000000000009 1.6890575335305491 1.0000000180025095e-35 -0.15375202448286193 3.1021959727689237
decision_type=2 2 2 2 2 2 2 2 2 2 2 2 2 2 2 2 2 2 2 2 2 2 2 2 2 2 2 2 2 2
left_child=1 3 7 4 6 22 9 10 23 -1 -3 14 20 -14 16 -16 -5 18 -9 -8 -13 -19 -2 -6 -24 28 27 -7 -26 -29
right_child=5 2 -4 11 8 26 19 17 -10 -11 -12 12 13 -15 15 -17 -18 21 -20 -21 -22 -23 24 -25 25 -27 -28 29 -30 -31
leaf_value=0.10865344894563539 0.13916037442148807 0.090483047808888523 0.1149678860875111 0.081240756310705015 0.11398316308855834 0.12925521247962252 0.062084003585562042 0.048993284601348011 0.084499812661381346 0.084932392064258802 0.1587330278647919 0.087556117896612801 0.081356156363052337 0.068901555632230368 0.10317121279756487 0.085002593932319778 0.091740908307602662 0.088181515538993782 0.086072465954273772 -0.0079245842593119974 0.076000302437440381 0.064787249566467364 0.18131873170456309 0.13025639344809664 0.10572509847680514 0.17009692226489037 0.091260725497266867 0.13677795434006279 0.14553353985726339 0.10176905923324116
leaf_weight=222.8131749778986 16686.677757263184 38.974654376506805 6357.5634451508522 3832.653328537941 635.30066476762295 2497.4592340737581 32.082004740834236 181.51819029450417 108.32136671245098 11432.971801504493 39.374401733279228 4032.0684642195702 24562.86305013299 762.66701900959015 628.8164701461792 1107.7159296125174 1067.4584360867739 905.63831588625908 184.95521976053715 28.187582969665527 598.97666445374489 143.24905724823475 68.335982084274292 411.07914914190769 51.627918004989624 90.891868591308594 37.0975511521101 2497.2180921882391 131.49246430397034 48.362971127033234
leaf_count=752 45776 141 20634 15037 2067 7331 139 810 403 44205 101 15457 96757 3156 2245 4279 4009 3470 714 163 2407 602 141 1228 169 204 131 7027 347 163
internal_value=0.101382 0.0873209 0.108865 0.0839009 0.087966 0.137834 0.0850994 0.0828816 0.117038 0.0853872 0.125005 0.0824707 0.0817678 0.0809816 0.0856418 0.0915901 0.083531 0.0805376 0.0677388 0.0292999 0.0860642 0.0849978 0.139447 0.120393 0.15337 0.146318 0.132423 0.132723 0.134401 0.136119
internal_weight=79424.4 57315.2 7851.27 49464 12870.8 22109.2 11716.1 1493.71 1154.7 11655.8 78.3491 36593.2 29956.6 25325.5 6636.64 1736.53 4900.11 1415.36 366.473 60.2696 4631.05 1048.89 17029 1046.38 342.348 274.012 5080.14 5043.04 183.12 2545.58
internal_count=280065 218776 26472 192304 48957 61289 45259 5838 3698 44957 242 143347 117777 99913 25570 6524 19046 5596 1524 302 17864 4072 46637 3295 861 720 14652 14521 516 7190
is_linear=0
shrinkage=0.05


Tree=2
num_leaves=31
num_cat=0
split_feature=38 19 38 38 38 19 18 24 24 9 15 9 24 24 15 24 25 31 26 6 2 13 6 25 24 26 11 24 2 38
split_gain=5206.95 1082.6 771.39 372.734 217.658 159.663 148.704 118.111 73.0849 69.9399 66.2658 61.089 55.0951 54.6954 54.2877 52.2062 49.7805 44.7735 48.8528 54.0259 44.7542 43.8181 43.2104 50.2558 43.1554 41.7589 45.1806 41.312 39.2371 38.1046
threshold=0.32153100281626296 1.0000000180025095e-35 1.0451619183445473 0.17850961060872919 0.43694171559830192 1.0000000180025095e-35 1.0000000180025095e-35 -0.3196410259123918 -0.60966550592899849 3.5000000000000004 430.34500000000008 3.5000000000000004 -0.52065799309631577 0.25451854812814728 423.76500000000004 0.66992398151080945 -1.5967013027430128 4.5000000000000009 1.2534448564423684 -0.69983332452100189 2.2002447073022808 1.0000000180025095e-35 -1.23054629964398 -0.28876325196553831 -0.19181542175692443 -0.21863040749767498 0.83734101989528875 -0.93939704119181244 1.8208632456813325 0.85536458053343745
decision_type=2 2 2 2 2 2 2 2 2 2 2 2 2 2 2 2 2 2 10 2 2 2 2 2 2 10 2 2 2 2
left_child=1 3 4 -1 5 7 22 9 11 -2 -9 27 -4 29 -10 -15 -3 18 21 -20 25 -18 24 -24 -6 26 -14 -5 -27 -8
right_child=2 16 12 8 6 -7 13 10 14 -11 -12 -13 20 15 -16 -17 17 -19 19 -21 -22 -23 23 -25 -26 28 -28 -29 -30 -31
leaf_value=0.12224604976058118 0.095817812871038702 0.10789359639447023 0.098660005037611812 0.12023788065988768 0.063201052601199167 0.080645795154173694 0.084056891282850238 0.096966623027329155 0.11052810886382479 0.10888387212479447 0.078618045408928083 0.12594433857168263 0.079885300476149446 0.099887139071608372 0.10084330480054515 0.081013678976768796 0.095116096495969568 0.085957972801056687 -0.0087578957187612709 0.0594041400945221 0.062380978822422509 0.069675389615976205 0.064618681968844446 0.077651938687140765 0.095216307063917011 0.072365033766787698 0.072225199157527592 0.10893208073546581 0.085436526703873236 0.091570149686297855
leaf_weight=6684.6041048318148 6546.2278911024332 120.83642335236073 243.45158484578133 905.0430521517992 141.63084334135056 2427.6459221094847 15932.408903077245 747.75482794642448 2228.2386710196733 1230.0079745799303 1479.0893914550543 641.26808094978333 6471.2406201958656 1223.6875919550657 4316.2921913266182 533.40416671335697 199.8293964266777 641.38509571552277 36.494347840547562 140.04610581696033 728.71734014153481 1192.0918921530247 1258.6441068351269 1837.1979244798422 434.16279697418213 11044.292113572359 2787.724250972271 9454.1566012203693 613.71638156473637 1922.2267256528139
leaf_count=17093 20963 384 759 2347 548 8759 55546 2367 6341 3553 5338 1593 23586 3849 13155 1914 676 2264 184 554 2884 4520 4880 6720 1471 41584 10501 27126 2182 6424
internal_value=0.0907394 0.109055 0.0822938 0.112187 0.0868252 0.0921748 0.0839684 0.0949715 0.108354 0.0978866 0.0847857 0.110857 0.0749 0.0857004 0.104143 0.0941655 0.0764943 0.0747703 0.070187 0.0452884 0.0746321 0.0733379 0.0747139 0.072357 0.0873624 0.0750584 0.0775803 0.109921 0.0730543 0.0848666
internal_weight=84163.5 26560.3 57603.2 24229.6 35714.1 12430.7 23283.4 10003.1 17545 7776.24 2226.84 11000.5 21889.1 19611.7 6544.53 1757.09 2330.68 2209.85 1568.46 176.54 21645.7 1391.92 3671.64 3095.84 575.794 20917 9258.96 10359.2 11658 17854.6
internal_count=280065 76237 203828 67655 122332 40980 81352 32221 50562 24516 7705 31066 81496 67733 19496 5763 8582 8198 5934 738 80737 5196 13619 11600 2019 77853 34087 29473 43766 61970
is_linear=0
shrinkage=0.05


Tree=3
num_leaves=31
num_cat=0
split_feature=38 19 38 38 38 19 18 24 24 9 7 4 15 9 37 3 7 15 37 24 24 24 15 3 10 38 28 6 27 10
split_gain=4098.05 845.72 613.999 286.811 172.085 126.424 117.932 92.5401 56.472 54.4942 53.9002 53.8104 52.3596 46.8133 45.1568 64.6594 47.5076 43.1261 45.2847 43.0748 42.8608 41.8087 41.798 39.9718 35.3598 35.1453 34.5676 34.0239 37.3744 32.5391
threshold=0.32153100281626296 1.0000000180025095e-35 1.0451619183445473 0.17850961060872919 0.43694171559830192 1.0000000180025095e-35 1.0000000180025095e-35 -0.3196410259123918 -0.60966550592899849 3.5000000000000004 1.6622342938739256 -0.82037002601435283 430.34500000000008 3.5000000000000004 22.262999999999995 0.73240366510683252 0.51679844021228749 606.57500000000016 205.91566666666668 0.92809392093810839 0.25451854812814728 0.72207653168493235 418.20500000000004 1.3863035973134636 3.4358517099232646 0.37362662925398832 -0.013995086141782393 -1.23054629964398 -1.2930447159386897 4.8956983933190976
decision_type=2 2 2 2 2 2 2 2 2 2 2 2 2 2 2 2 2 2 2 2 2 2 2 2 2 2 2 2 2 2
left_child=1 3 4 -1 5 7 27 9 13 -2 25 17 -9 26 15 16 -13 -4 19 -19 24 -22 29 -17 -8 -7 -5 28 -6 -10
right_child=2 -3 11 8 6 10 20 12 22 -11 -12 14 -14 -15 -16 23 -18 18 -20 -21 21 -23 -24 -25 -26 -27 -28 -29 -30 -31
leaf_value=0.10897014407284285 0.086353761870255591 0.069558162832214915 0.074995815625446716 0.09561110635605384 0.11007055724697015 0.067527667743363981 0.085918064232527985 0.087352532455966928 0.097569282351823619 0.097575030827990461 0.025377725220767079 0.074837882898301095 0.071429446141982156 0.11208432481077864 0.065831514557565182 0.097802138632636731 0.052140594020254595 0.054478067471777018 0.053769433912646818 0.075798447796258744 0.089117220762331736 0.071316550648267071 0.090821005914535152 0.067015799205055515 0.076335740047815612 0.079602345503786157 0.10128874452640542 0.065951073076671071 0.073903110688310694 0.12209627252215749
leaf_weight=7112.0140591114759 6890.9161750674248 2432.0704096108675 4244.6047673523426 5421.3734042346478 84.150111883878708 1093.2882397770882 1034.6951784193516 787.45743882656097 2092.6239143013954 1301.9349780976772 58.097238346934319 731.14307641983032 1544.7481233775616 683.36123438179493 15084.281847730279 377.73999105393887 341.31194427609444 312.02664190530777 553.04062557220459 1030.4400679022074 1409.9298868179321 438.97773741185665 4671.0020055621862 149.5820683836937 17669.077773913741 1387.4627817720175 5545.823619171977 3223.214914932847 520.23508059978485 148.2270555794239
leaf_count=17093 20963 8582 14684 14847 238 3875 3264 2367 5667 3553 245 2487 5338 1593 54525 1148 1283 1171 2108 3561 4225 1538 13486 529 58706 4639 14626 11600 1781 343
internal_value=0.0819835 0.097751 0.0746301 0.100421 0.0785717 0.0832094 0.0760861 0.08563 0.0971449 0.0881387 0.0731697 0.0681631 0.0768115 0.0992826 0.0666835 0.0747093 0.0676246 0.0721815 0.0658731 0.0708511 0.0775897 0.0848977 0.0935394 0.089093 0.0768666 0.0742859 0.0984835 0.0680092 0.0789644 0.0991993
internal_weight=88374.9 28106.5 60268.4 25674.4 37444.2 13063.9 24380.3 10525.1 18562.4 8192.85 2538.85 22824.2 2332.21 11650.6 16684.1 1599.78 1072.46 6140.11 1895.51 1342.47 20552.7 1848.91 6911.85 527.322 18703.8 2480.75 10967.2 3827.6 604.385 2240.85
internal_count=280065 76237 203828 67655 122332 40980 81352 32221 50562 24516 8759 81496 7705 31066 59972 5447 3770 21524 6840 4732 67733 5763 19496 1677 61970 8514 29473 13619 2019 6010
is_linear=0
shrinkage=0.05


Tree=4
num_leaves=31
num_cat=0
split_feature=38 30 30 30 14 30 30 14 14 14 38 3 38 14 25 27 25 24 26 5 3 16 10 10 2 28 10 26 5 16
split_gain=3327.05 1295.62 1277.96 626.81 854.481 627.114 301.235 285.52 153.295 130.559 567.346 57.7376 56.6883 97.1154 51.713 43.9889 42.7057 42.6033 41.5882 90.4483 41.472 37.5619 36.4907 54.0133 66.5419 48.1295 40.6669 47.9785 40.9673 35.205
threshold=0.32153100281626296 2.5000000000000004 1.0000000180025095e-35 1.5000000000000002 1.5000000000000002 1.0000000180025095e-35 3.5000000000000004 1.5000000000000002 3.5000000000000004 1.5000000000000002 0.50871845213210842 -1.0339388286822355 0.48598156617646543 2.5000000000000004 -0.081241299974706138 -0.25812914714808716 -1.0601835285164511 -0.21926218289259566 1.1694591094059803 -0.056400377975849091 -0.74006539759680534 92.115500000000011 4.4871422946015143 4.6379167570976829 2.0085717605166002 1.290936018584546 4.4280448764372879 -0.81877820025045522 1.3351737054630772 297.49250000000006
decision_type=2 2 2 2 2 2 2 2 2 2 2 2 2 2 2 2 2 2 10 2 2 2 2 2 2 2 2 10 2 2
left_child=3 2 22 5 6 16 11 -4 -7 10 -3 15 13 -9 20 -5 18 -6 19 -1 -12 -16 26 24 -24 -25 28 -28 -2 -10
right_child=1 9 7 4 17 8 -8 12 29 -11 14 -13 -14 -15 21 -17 -18 -19 -20 -21 -22 -23 23 25 -26 -27 27 -29 -30 -31
leaf_value=-0.00039104308009324572 0.057448406794321595 0.099138014021211349 0.061929818364599355 -0.023690782748337476 0.059257103775696873 0.099129326352630845 0.094773489015376147 0.1014492048695618 0.087987886410703625 0.061305629447144509 0.066430998153289095 0.063380250730268858 0.084652747092158379 0.087559222598872111 0.04417224379511385 0.045777970875561264 0.067430762388533613 0.10107343261129592 0.079253568842972355 0.063092252578196825 0.051946142238818285 0.067957604837040483 0.071785028411317162 0.057823675395635904 0.12186677062817126 0.08333759558790986 0.080129473069043416 0.010266289631416372 0.071442468612785179 0.10047811247085502
leaf_weight=97.926638349890709 4398.4433939605951 1264.0810336768627 1168.495432689786 35.063912808895111 3843.7825862169266 12693.535711929202 4778.3664951771498 1679.8271760195494 5261.6956835985184 32914.607823058963 711.59610043466091 457.13473731279373 7554.6663616299629 5161.4850570559502 179.58746407926083 64.36798033118248 1311.3843314498663 62.357048988342285 73.492959827184677 130.79432746767998 1662.3600183129311 2568.1473799794912 781.05647003650665 1609.1598791629076 73.01699997484684 210.64466452598572 34.098805367946625 88.234866470098495 599.65679676830769 645.45234943926334
leaf_count=416 15121 3084 3975 163 12770 29299 11543 4033 13867 113219 2416 1481 21281 14154 670 227 4158 161 218 423 6029 8584 2509 5530 175 638 105 370 1935 1511
internal_value=0.0746372 0.0681214 0.0774487 0.0884976 0.0777039 0.0934313 0.0907164 0.085726 0.096026 0.0625773 0.0691299 0.0558643 0.0876567 0.090972 0.0617208 0.0212309 0.0635137 0.0599285 0.0464834 0.0359018 0.0562927 0.0664065 0.0609182 0.0656764 0.0760863 0.0607841 0.0584313 0.0298301 0.0591298 0.0893552
internal_weight=92114.5 62659.2 23358.8 29455.4 9241.07 20214.3 5334.93 15564.5 18600.7 39300.4 6385.77 556.567 14396 6841.31 5121.69 99.4319 1613.6 3906.14 302.214 228.721 2373.96 2747.73 7794.31 2673.88 854.073 1819.8 5120.43 122.334 4998.1 5907.15
internal_count=280065 203828 69826 76237 26345 49892 13414 43443 44677 134002 20783 1871 39468 18187 17699 390 5215 12931 1057 839 8445 9254 26383 8852 2684 6168 17531 475 17056 15378
is_linear=0
shrinkage=0.05


Tree=5
num_leaves=31
num_cat=0
split_feature=39 39 18 38 20 30 30 2 30 2 28 5 10 10 36 11 16 24 28 6 16 2 2 6 38 27 2 15 28 3
split_gain=7889.3 719.791 265.977 61.4788 52.9856 188.554 138.665 43.0075 37.1227 36.7409 40.5835 32.5226 35.0518 33.5463 32.2509 40.1263 38.0731 37.7304 33.8518 32.0138 38.4969 31.9232 49.9739 50.1432 47.4276 31.2266 31.0589 51.7621 30.7793 30.3815
threshold=1.0000000180025095e-35 0.70000000000000007 1.0000000180025095e-35 0.37965869425874244 1.0000000180025095e-35 2.5000000000000004 1.5000000000000002 2.1481027904832843 3.5000000000000004 -0.75036650066217569 -1.2690868761846721 0.52742336356750485 4.7742496697580474 4.4871422946015143 8.5000000000000018 0.67285159271320572 349.15000000000003 -0.77730928582110093 -0.48172096764804945 -1.3344890752217586 457.15000000000003 -0.056616879489689596 -0.49015694342065774 -0.20619559783538263 1.2844178420655059 -1.4489908975372736 -0.042336953784700863 241.56000000000003 1.576863124822437 -0.015945946382643714
decision_type=2 2 2 2 2 2 2 2 2 2 2 2 2 2 2 2 2 2 2 2 2 2 2 2 2 2 2 2 2 2
left_child=3 2 -2 9 21 6 7 -6 19 14 11 13 -13 -11 15 -1 17 -16 -17 20 -3 22 23 -5 -24 -4 27 -23 -8 -28
right_child=1 8 25 4 5 -7 28 -9 -10 10 -12 12 -14 -15 16 18 -18 -19 -20 -21 -22 26 24 -25 -26 -27 29 -29 -30 -31
leaf_value=0.023077953493448308 0.057484665925709194 0.087158258599401434 0.066874544954921442 0.053148825279576685 0.058267560514922247 0.055699984418646292 0.084745941486206525 0.098989130417716967 0.087134997867316655 0.044755290036872598 0.056536433123088627 0.039366368934525948 -0.010399725698888158 0.067236550220669475 0.057531366986639215 0.067196573837417825 0.072850135261703322 0.043623828480078862 0.036496594660044547 0.092245999208003068 0.050216450674270253 0.074432197089775942 0.058006814248075682 0.059100864867779782 0.065708352257440705 0.079537264144449005 0.053377035533184826 0.024115988773411416 0.042372698688706682 0.057706038723687084
leaf_weight=251.14512006938457 1839.8572006076574 2295.1228656619787 532.32147243618965 6500.4246056079865 1217.2533753812313 4858.5917359739542 1326.103840187192 69.039621949195862 6308.1851158589125 505.56307664513588 7666.238733753562 322.73636414110661 39.523029834032059 250.38725177943707 847.28325417637825 152.1355389803648 192.17904716730118 1170.1849893480539 223.47624106705189 18739.16365468502 73.90671594440937 70.653788626194 4692.8214017003775 7886.5855670124292 3533.2110461741686 7172.8574285805225 8103.708550542593 186.74810791015625 45.09719629585743 8294.6916803270578
leaf_count=945 5985 5214 1523 21973 3947 16280 3405 177 14646 1727 24704 1129 170 764 2710 465 567 4022 792 41026 208 214 15385 25920 11356 19068 27371 718 150 27463
internal_value=0.0683356 0.0864137 0.0745827 0.0568949 0.0577055 0.0615646 0.0722822 0.0604646 0.0905322 0.0536304 0.0552342 0.0462974 0.0339216 0.0522161 0.0486598 0.0386016 0.0515086 0.0494697 0.048959 0.0915468 0.0860101 0.0569666 0.0581967 0.0564123 0.0613161 0.078664 0.055296 0.0379702 0.0833592 0.0555674
internal_weight=95367.2 36961.4 9545.04 58405.8 46784.9 7516.09 2657.49 1286.29 27416.4 11620.9 8784.45 1118.21 362.259 755.95 2836.4 626.757 2209.65 2017.47 375.612 21108.2 2369.03 39268.8 22613 14387 8226.03 7705.18 16655.8 257.402 1371.2 16398.4
internal_count=280024 87670 26576 192354 154359 23959 7679 4124 61094 37995 28494 3790 1299 2491 9501 2202 7299 6732 1257 46448 5422 130400 74634 47893 26741 20591 55766 932 3555 54834
is_linear=0
shrinkage=0.05


end of trees

feature_importances:
Column_24=18
Column_38=17
Column_30=14
Column_2=10
Column_3=10
Column_6=9
Column_5=8
Column_10=8
Column_15=8
Column_28=8
Column_14=7
Column_16=6
Column_25=6
Column_39=6
Column_26=5
Column_27=5
Column_7=4
Column_9=4
Column_18=4
Column_19=4
Column_4=3
Column_11=3
Column_31=3
Column_0=2
Column_1=2
Column_13=2
Column_37=2
Column_20=1
Column_36=1

parameters:
[boosting: gbdt]
[objective: binary]
[metric: auc]
[tree_learner: serial]
[device_type: cpu]
[data_sample_strategy: bagging]
[data: ]
[valid: ]
[num_iterations: 1000]
[learning_rate: 0.05]
[num_leaves: 31]
[num_threads: 0]
[seed: 0]
[deterministic: 0]
[force_col_wise: 0]
[force_row_wise: 0]
[histogram_pool_size: -1]
[max_depth: 6]
[min_data_in_leaf: 100]
[min_sum_hessian_in_leaf: 0.001]
[bagging_fraction: 0.8]
[pos_bagging_fraction: 1]
[neg_bagging_fraction: 1]
[bagging_freq: 5]
[bagging_seed: 3]
[bagging_by_query: 0]
[feature_fraction: 0.8]
[feature_fraction_bynode: 1]
[feature_fraction_seed: 2]
[extra_trees: 0]
[extra_seed: 6]
[early_stopping_round: 0]
[early_stopping_min_delta: 0]
[first_metric_only: 0]
[max_delta_step: 0]
[lambda_l1: 0.1]
[lambda_l2: 0.1]
[linear_lambda: 0]
[min_gain_to_split: 0]
[drop_rate: 0.1]
[max_drop: 50]
[skip_drop: 0.5]
[xgboost_dart_mode: 0]
[uniform_drop: 0]
[drop_seed: 4]
[top_rate: 0.2]
[other_rate: 0.1]
[min_data_per_group: 100]
[max_cat_threshold: 32]
[cat_l2: 10]
[cat_smooth: 10]
[max_cat_to_onehot: 4]
[top_k: 20]
[monotone_constraints: ]
[monotone_constraints_method: basic]
[monotone_penalty: 0]
[feature_contri: ]
[forcedsplits_filename: ]
[refit_decay_rate: 0.9]
[cegb_tradeoff: 1]
[cegb_penalty_split: 0]
[cegb_penalty_feature_lazy: ]
[cegb_penalty_feature_coupled: ]
[path_smooth: 0]
[interaction_constraints: ]
[verbosity: -1]
[saved_feature_importance_type: 0]
[use_quantized_grad: 0]
[num_grad_quant_bins: 4]
[quant_train_renew_leaf: 0]
[stochastic_rounding: 1]
[linear_tree: 0]
[max_bin: 255]
[max_bin_by_feature: ]
[min_data_in_bin: 3]
[bin_construct_sample_cnt: 200000]
[data_random_seed: 1]
[is_enable_sparse: 1]
[enable_bundle: 1]
[use_missing: 1]
[zero_as_missing: 0]
[feature_pre_filter: 1]
[pre_partition: 0]
[two_round: 0]
[header: 0]
[label_column: ]
[weight_column: ]
[group_column: ]
[ignore_column: ]
[categorical_feature: ]
[forcedbins_filename: ]
[precise_float_parser: 0]
[parser_config_file: ]
[objective_seed: 5]
[num_class: 1]
[is_unbalance: 0]
[scale_pos_weight: 5]
[sigmoid: 1]
[boost_from_average: 1]
[reg_sqrt: 0]
[alpha: 0.9]
[fair_c: 1]
[poisson_max_delta_step: 0.7]
[tweedie_variance_power: 1.5]
[lambdarank_truncation_level: 30]
[lambdarank_norm: 1]
[label_gain: ]
[lambdarank_position_bias_regularization: 0]
[eval_at: ]
[multi_error_top_k: 1]
[auc_mu_weights: ]
[num_machines: 1]
[local_listen_port: 12400]
[time_out: 120]
[machine_list_filename: ]
[machines: ]
[gpu_platform_id: -1]
[gpu_device_id: -1]
[gpu_use_dp: 0]
[num_gpu: 1]

end of parameters

pandas_categorical:null
